{"levels":[{"inputs":[0.28889879584106337,0.16783879232722954,0,0,0.05905852373163567,0.44250601411376644,0.510783734183633],"outputs":[0,0,1,1,1],"biases":[0.13772149435044556,0.26205944675134873,0.1386632443477461,-0.19986312100411158,0.1801556692317338],"weights":[[-0.3956894468885448,-0.42319810041250155,-0.005815783137067959,-0.1112295930860839,-0.2202501556014511],[-0.30441929028579584,0.5057738850920701,0.16612381127330872,-0.39059327657436244,0.7171875802640889],[-0.49005497451240426,-0.6901997478141662,-0.31298241148805983,-0.1348700844262733,0.20178800560236004],[0.2520634452606919,0.2779241722420662,-0.5071491488240384,0.10771151284212616,0.5864234567807038],[0.12147424548050662,-0.24534066815108946,0.19485855909953037,0.289517395319114,-0.4496580406809744],[0.4802445055038528,-0.0464098677131007,-0.012881149601518871,0.3690401345781868,0.1459600144375053],[-0.3120667496814982,-0.22397105021966732,0.21659426328877887,-0.5073096294715232,0.27479359936688097]]},{"inputs":[0,0,1,1,1],"outputs":[1,1,0,0],"biases":[-0.7093864707182174,0.04571664712777401,-0.5380876564533034,0.49826528244280116],"weights":[[0.25109637209247604,-0.3644223129730385,0.31387283885580913,-0.027980821640250106],[0.06883006653926842,-0.14692444198921997,-0.2037424554251904,0.4566611234017163],[0.10916474655590769,-0.15103084138051348,-0.4669373866688921,0.1765733503377211],[-0.6235964339771339,0.2824354269018782,-0.5404923085506258,-0.10492325101019506],[0.39453273758716256,-0.014784348056462608,-0.2388826081937396,-0.18811913553630374]]}]}