{"levels":[{"inputs":[0.273319056458057,0.1433356063115392,0,0,0.1067932000799856,0.4635836210260401,0.5259243962808305],"outputs":[0,0,1,1,0],"biases":[0.10092099986212405,0.42484230766991105,0.1365486473569785,-0.12403887462566177,0.41500205374494914],"weights":[[-0.48763329663550586,-0.6828018111788533,-0.024956570449851653,-0.08489168588227458,-0.3417137841225401],[-0.4670710676727506,0.7027019772100827,0.2765155264207873,-0.47671173680218626,0.838089728923535],[-0.4157644398693039,-0.842191525518015,-0.3137698713861775,-0.09256886891481475,0.12211423768656635],[0.3553778483801472,0.41880820980617517,-0.4370585432692802,0.1839752246820424,0.7573639482984398],[0.1761473302246689,-0.32933415185096415,0.2711936750618672,0.5393482028059529,-0.5880566037730808],[0.7214994700510667,-0.1491453340331206,0.06071907819871978,0.4507941767345688,0.16216595363119424],[-0.3963753817054696,-0.2953048457732272,0.28898754005345895,-0.4997763984882543,0.33878341950008073]]},{"inputs":[0,0,1,1,0],"outputs":[1,1,0,0],"biases":[-0.6810642346886893,-0.030003085784387575,-0.7388771134144453,0.5364732851748875],"weights":[[0.18371677813712478,-0.3298502309618183,0.3893189296616101,-0.2431012709694364],[-0.11057956754644943,-0.1027178576858871,-0.3116600494837349,0.45447026612309366],[0.15823079557674197,-0.23018511769662633,-0.5665744798609068,0.20584314880035032],[-0.7493599479910329,0.27163781255387853,-0.5055361574014259,-0.18594427626868992],[0.5914712688845045,-0.12632928388379785,-0.32685207471939176,-0.3269324639481031]]}]}